SVM-light Version V6.20
0 # kernel type
3 # kernel parameter -d 
1 # kernel parameter -g 
1 # kernel parameter -s 
1 # kernel parameter -r 
empty# kernel parameter -u 
2 # highest feature index 
270 # number of training documents 
75 # number of support vectors plus 1 
-3.7481761 # threshold b, each following line is a SV (starting with alpha*y)
-0.26234834237953030822154687484726 1:0.62583297 2:0.274167 #
2.0632052356715777641227305139182 1:0.14416701 2:0.380833 #
-2.0632052356715777641227305139182 1:0.120833 2:0.529167 #
2.0632052356715777641227305139182 1:0.50916702 2:0.44749999 #
-2.0632052356715777641227305139182 1:0.81083298 2:0.1025 #
2.0632052356715777641227305139182 1:0.14749999 2:0.46583301 #
-2.0632052356715777641227305139182 1:0.100833 2:0.61916697 #
2.0632052356715777641227305139182 1:0.59916699 2:0.26583299 #
-2.0632052356715777641227305139182 1:0.69416702 2:0.120833 #
2.0632052356715777641227305139182 1:0.40916699 2:0.46083301 #
-2.0632052356715777641227305139182 1:0.109167 2:0.62083298 #
2.0632052356715777641227305139182 1:0.56916702 2:0.2475 #
-2.0632052356715777641227305139182 1:0.7525 2:0.125833 #
2.0632052356715777641227305139182 1:0.105833 2:0.459167 #
-2.0632052356715777641227305139182 1:0.120833 2:0.59416699 #
2.0632052356715777641227305139182 1:0.475833 2:0.32583299 #
-2.0632052356715777641227305139182 1:0.14416701 2:0.52083302 #
2.0632052356715777641227305139182 1:0.4075 2:0.39583299 #
-2.0632052356715777641227305139182 1:0.70416701 2:0.1375 #
2.0632052356715777641227305139182 1:0.220833 2:0.44749999 #
-2.0632052356715777641227305139182 1:0.139167 2:0.57083303 #
2.0632052356715777641227305139182 1:0.43583301 2:0.364167 #
-2.0632052356715777641227305139182 1:0.61916697 2:0.1525 #
2.0632052356715777641227305139182 1:0.250833 2:0.43916699 #
-2.0632052356715777641227305139182 1:0.12916701 2:0.62083298 #
2.0632052356715777641227305139182 1:0.46250001 2:0.2225 #
-2.0632052356715777641227305139182 1:0.62083298 2:0.190833 #
2.0632052356715777641227305139182 1:0.339167 2:0.3775 #
-2.0632052356715777641227305139182 1:0.150833 2:0.57916701 #
2.0632052356715777641227305139182 1:0.4375 2:0.28083301 #
-2.0632052356715777641227305139182 1:0.714167 2:0.149167 #
2.0632052356715777641227305139182 1:0.21250001 2:0.40916699 #
-2.0632052356715777641227305139182 1:0.16249999 2:0.63916701 #
2.0632052356715777641227305139182 1:0.459167 2:0.20416699 #
-2.0632052356715777641227305139182 1:0.66916698 2:0.17083301 #
2.0632052356715777641227305139182 1:0.2825 2:0.380833 #
-2.0632052356715777641227305139182 1:0.180833 2:0.59916699 #
2.0632052356715777641227305139182 1:0.41249999 2:0.25416699 #
-2.0632052356715777641227305139182 1:0.38249999 2:0.36083299 #
2.0632052356715777641227305139182 1:0.34416699 2:0.334167 #
-2.0632052356715777641227305139182 1:0.5025 2:0.29583299 #
2.0632052356715777641227305139182 1:0.2825 2:0.35416701 #
-2.0632052356715777641227305139182 1:0.239167 2:0.50916702 #
2.0632052356715777641227305139182 1:0.39250001 2:0.249167 #
-2.0632052356715777641227305139182 1:0.72416699 2:0.15583301 #
2.0632052356715777641227305139182 1:0.180833 2:0.39416701 #
-2.0632052356715777641227305139182 1:0.18916699 2:0.60416698 #
2.0632052356715777641227305139182 1:0.399167 2:0.2325 #
-2.0632052356715777641227305139182 1:0.36750001 2:0.40916699 #
2.0632052356715777641227305139182 1:0.190833 2:0.38416699 #
-2.0632052356715777641227305139182 1:0.334167 2:0.44749999 #
2.0632052356715777641227305139182 1:0.4425 2:0.169167 #
-2.0632052356715777641227305139182 1:0.51249999 2:0.30583301 #
2.0632052356715777641227305139182 1:0.309167 2:0.2825 #
-2.0632052356715777641227305139182 1:0.29750001 2:0.499167 #
2.0632052356715777641227305139182 1:0.3475 2:0.24583299 #
-2.0632052356715777641227305139182 1:0.67416698 2:0.194167 #
2.0632052356715777641227305139182 1:0.214167 2:0.334167 #
-2.0632052356715777641227305139182 1:0.209167 2:0.57583302 #
2.0632052356715777641227305139182 1:0.45083299 2:0.130833 #
-2.0632052356715777641227305139182 1:0.66250002 2:0.21916699 #
2.0632052356715777641227305139182 1:0.41416699 2:0.154167 #
-2.0632052356715777641227305139182 1:0.39583299 2:0.43583301 #
2.0632052356715777641227305139182 1:0.21250001 2:0.320833 #
-2.0632052356715777641227305139182 1:0.28416699 2:0.54750001 #
2.0632052356715777641227305139182 1:0.124167 2:0.375833 #
-2.0632052356715777641227305139182 1:0.165833 2:0.66250002 #
2.0632052356715777641227305139182 1:0.34416699 2:0.18916699 #
-2.0632052356715777641227305139182 1:0.62583297 2:0.249167 #
2.0632052356715777641227305139182 1:0.2375 2:0.2775 #
-2.0632052356715777641227305139182 1:0.55083299 2:0.32916701 #
2.0632037139515944090817356482148 1:0.26583299 2:0.240833 #
-2.0632052356715777641227305139182 1:0.3475 2:0.50916702 #
0.26234986409968996667885221540928 1:0.2225 2:0.2775 #
