SVM-light Version V6.20
0 # kernel type
3 # kernel parameter -d 
1 # kernel parameter -g 
1 # kernel parameter -s 
1 # kernel parameter -r 
empty# kernel parameter -u 
2 # highest feature index 
270 # number of training documents 
73 # number of support vectors plus 1 
3.3049468 # threshold b, each following line is a SV (starting with alpha*y)
-2.0632052356715777641227305139182 1:0.48249999 2:0.535833 #
2.0632052356715777641227305139182 1:0.55416697 2:0.56583297 #
-2.0632052356715777641227305139182 1:0.6275 2:0.79750001 #
2.0632052356715777641227305139182 1:0.61916697 2:0.1525 #
-2.0632052356715777641227305139182 1:0.59916699 2:0.26583299 #
2.0632052356715777641227305139182 1:0.39583299 2:0.43583301 #
-2.0632052356715777641227305139182 1:0.63583302 2:0.53750002 #
2.0632052356715777641227305139182 1:0.38249999 2:0.36083299 #
-2.0632052356715777641227305139182 1:0.494167 2:0.5625 #
2.0632052356715777641227305139182 1:0.74916703 2:0.64083302 #
-2.0632052356715777641227305139182 1:0.59916699 2:0.76249999 #
2.0632052356715777641227305139182 1:0.5025 2:0.29583299 #
-2.0632052356715777641227305139182 1:0.56916702 2:0.2475 #
2.0632052356715777641227305139182 1:0.470833 2:0.49250001 #
-2.0632052356715777641227305139182 1:0.57916701 2:0.7475 #
2.0632052356715777641227305139182 1:0.51249999 2:0.30583301 #
-2.0632052356715777641227305139182 1:0.45083299 2:0.130833 #
2.0632052356715777641227305139182 1:0.66250002 2:0.65916699 #
-2.0632052356715777641227305139182 1:0.55916703 2:0.80083299 #
2.0632052356715777641227305139182 1:0.499167 2:0.404167 #
-2.0632052356715777641227305139182 1:0.459167 2:0.20416699 #
2.0632052356715777641227305139182 1:0.50916702 2:0.51416701 #
-2.0632052356715777641227305139182 1:0.600833 2:0.649167 #
2.0632052356715777641227305139182 1:0.48583299 2:0.45750001 #
-2.0632052356715777641227305139182 1:0.55583298 2:0.45083299 #
2.0632052356715777641227305139182 1:0.54250002 2:0.51749998 #
-2.0632052356715777641227305139182 1:0.57749999 2:0.61083299 #
2.0632052356715777641227305139182 1:0.540833 2:0.36750001 #
-2.0632052356715777641227305139182 1:0.399167 2:0.1075 #
2.0632052356715777641227305139182 1:0.65583301 2:0.59416699 #
-2.0632052356715777641227305139182 1:0.57249999 2:0.70249999 #
2.0632052356715777641227305139182 1:0.55083299 2:0.32916701 #
-2.0632052356715777641227305139182 1:0.56083298 2:0.62083298 #
2.0632052356715777641227305139182 1:0.56583297 2:0.42583299 #
-2.0632052356715777641227305139182 1:0.4425 2:0.169167 #
2.0632052356715777641227305139182 1:0.589167 2:0.489167 #
-2.0632052356715777641227305139182 1:0.54250002 2:0.600833 #
2.0632052356715777641227305139182 1:0.58583301 2:0.364167 #
-2.0632052356715777641227305139182 1:0.46250001 2:0.2225 #
2.0632052356715777641227305139182 1:0.63749999 2:0.45583299 #
-2.0632052356715777641227305139182 1:0.53416699 2:0.60916698 #
2.0632052356715777641227305139182 1:0.60916698 2:0.32749999 #
-2.0632052356715777641227305139182 1:0.475833 2:0.32583299 #
2.0632052356715777641227305139182 1:0.66916698 2:0.54583299 #
-2.0632052356715777641227305139182 1:0.53250003 2:0.59916699 #
2.0632052356715777641227305139182 1:0.62083298 2:0.190833 #
-2.0632052356715777641227305139182 1:0.41416699 2:0.154167 #
2.0632052356715777641227305139182 1:0.6925 2:0.51583302 #
-2.0632052356715777641227305139182 1:0.52583301 2:0.665833 #
2.0632052356715777641227305139182 1:0.62583297 2:0.274167 #
-2.0632052356715777641227305139182 1:0.50916702 2:0.44749999 #
2.0632052356715777641227305139182 1:0.64583302 2:0.364167 #
-2.0632052356715777641227305139182 1:0.4375 2:0.28083301 #
2.0632052356715777641227305139182 1:0.67250001 2:0.42250001 #
-2.0632052356715777641227305139182 1:0.464167 2:0.42416701 #
2.0632052356715777641227305139182 1:0.62583297 2:0.249167 #
-2.0632052356715777641227305139182 1:0.3775 2:0.124167 #
2.0632052356715777641227305139182 1:0.64416701 2:0.320833 #
-1.4287676179365333961612805069308 1:0.52749997 2:0.720833 #
2.0632052356715777641227305139182 1:0.665833 2:0.38416699 #
-2.0632052356715777641227305139182 1:0.41249999 2:0.25416699 #
2.0632052356715777641227305139182 1:0.67750001 2:0.3425 #
-2.0632052356715777641227305139182 1:0.369167 2:0.119167 #
2.0632052356715777641227305139182 1:0.73916698 2:0.535833 #
-2.0632052356715777641227305139182 1:0.399167 2:0.2325 #
2.0632052356715777641227305139182 1:0.720833 2:0.45083299 #
-2.0632052356715777641227305139182 1:0.43583301 2:0.364167 #
2.0632052356715777641227305139182 1:0.71916699 2:0.4425 #
-2.0632052356715777641227305139182 1:0.48249999 2:0.55916703 #
2.0477483668435274566377302107867 1:0.66250002 2:0.21916699 #
-1.2825010256725946078404376748949 1:0.39250001 2:0.249167 #
0.6635202767656025457654322963208 1:0.71749997 2:0.410833 #
